<?xml version="1.0"?>
<opencv_storage>
<cascade>
  <stageType>BOOST</stageType>
  <featureType>HAAR</featureType>
  <height>24</height>
  <width>24</width>
  <stageParams>
    <boostType>GAB</boostType>
    <minHitRate>9.9500000476837158e-01</minHitRate>
    <maxFalseAlarm>5.0000000000000000e-01</maxFalseAlarm>
    <weightTrimRate>9.4999999999999996e-01</weightTrimRate>
    <maxDepth>1</maxDepth>
    <maxWeakCount>100</maxWeakCount></stageParams>
  <featureParams>
    <maxCatCount>0</maxCatCount>
    <featSize>1</featSize>
    <mode>BASIC</mode></featureParams>
  <stageNum>14</stageNum>
  <stages>
    <!-- stage 0 -->
    <_>
      <maxWeakCount>2</maxWeakCount>
      <stageThreshold>-3.5765260457992554e-01</stageThreshold>
      <weakClassifiers>
        <_>
          <internalNodes>
            0 -1 28 -1.5368146821856499e-02</internalNodes>
          <leafValues>
            -9.5959597826004028e-01 7.6923078298568726e-01</leafValues></_>
        <_>
          <internalNodes>
            0 -1 25 -1.4678765088319778e-02</internalNodes>
          <leafValues>
            -9.7698277235031128e-01 6.0194337368011475e-01</leafValues></_></weakClassifiers></_>
    <!-- stage 1 -->
    <_>
      <maxWeakCount>2</maxWeakCount>
      <stageThreshold>-5.7530772686004639e-01</stageThreshold>
      <weakClassifiers>
        <_>
          <internalNodes>
            0 -1 14 -3.9253413677215576e-02</internalNodes>
          <leafValues>
            9.0476191043853760e-01 -9.0384614467620850e-01</leafValues></_>
        <_>
          <internalNodes>
            0 -1 20 -1.2303964467719197e-04</internalNodes>
          <leafValues>
            3.2853838801383972e-01 -9.7536200284957886e-01</leafValues></_></weakClassifiers></_>
    <!-- stage 2 -->
    <_>
      <maxWeakCount>3</maxWeakCount>
      <stageThreshold>-1.0122702121734619e+00</stageThreshold>
      <weakClassifiers>
        <_>
          <internalNodes>
            0 -1 2 -6.1353646218776703e-02</internalNodes>
          <leafValues>
            3.8461539149284363e-01 -8.5858583450317383e-01</leafValues></_>
        <_>
          <internalNodes>
            0 -1 21 -4.1259422898292542e-02</internalNodes>
          <leafValues>
            5.0331944227218628e-01 -8.1303626298904419e-01</leafValues></_>
        <_>
          <internalNodes>
            0 -1 29 -2.9987734742462635e-03</internalNodes>
          <leafValues>
            8.4809809923171997e-01 -6.5700387954711914e-01</leafValues></_></weakClassifiers></_>
    <!-- stage 3 -->
    <_>
      <maxWeakCount>3</maxWeakCount>
      <stageThreshold>-1.0663738250732422e+00</stageThreshold>
      <weakClassifiers>
        <_>
          <internalNodes>
            0 -1 2 -6.3301816582679749e-02</internalNodes>
          <leafValues>
            4.3999999761581421e-01 -8.6000001430511475e-01</leafValues></_>
        <_>
          <internalNodes>
            0 -1 26 1.4538708142936230e-02</internalNodes>
          <leafValues>
            -8.0756944417953491e-01 4.1415655612945557e-01</leafValues></_>
        <_>
          <internalNodes>
            0 -1 5 1.1147797107696533e-02</internalNodes>
          <leafValues>
            -6.2053036689758301e-01 6.5750163793563843e-01</leafValues></_></weakClassifiers></_>
    <!-- stage 4 -->
    <_>
      <maxWeakCount>2</maxWeakCount>
      <stageThreshold>-7.5292694568634033e-01</stageThreshold>
      <weakClassifiers>
        <_>
          <internalNodes>
            0 -1 3 -9.3354971613734961e-04</internalNodes>
          <leafValues>
            1.2195122241973877e-01 -9.5238095521926880e-01</leafValues></_>
        <_>
          <internalNodes>
            0 -1 4 -3.9976961910724640e-02</internalNodes>
          <leafValues>
            3.0535268783569336e-01 -8.7487810850143433e-01</leafValues></_></weakClassifiers></_>
    <!-- stage 5 -->
    <_>
      <maxWeakCount>2</maxWeakCount>
      <stageThreshold>-4.8622173070907593e-01</stageThreshold>
      <weakClassifiers>
        <_>
          <internalNodes>
            0 -1 18 7.0120656164363027e-04</internalNodes>
          <leafValues>
            -7.7358490228652954e-01 3.6842104792594910e-01</leafValues></_>
        <_>
          <internalNodes>
            0 -1 17 -3.4676663926802576e-04</internalNodes>
          <leafValues>
            3.1663587689399719e-01 -8.5464280843734741e-01</leafValues></_></weakClassifiers></_>
    <!-- stage 6 -->
    <_>
      <maxWeakCount>3</maxWeakCount>
      <stageThreshold>-7.4906104803085327e-01</stageThreshold>
      <weakClassifiers>
        <_>
          <internalNodes>
            0 -1 0 -3.0751710757613182e-02</internalNodes>
          <leafValues>
            7.1428573131561279e-01 -7.6576578617095947e-01</leafValues></_>
        <_>
          <internalNodes>
            0 -1 31 -1.9294138764962554e-03</internalNodes>
          <leafValues>
            5.4986077547073364e-01 -6.7410618066787720e-01</leafValues></_>
        <_>
          <internalNodes>
            0 -1 16 -4.1723005473613739e-02</internalNodes>
          <leafValues>
            -5.3315609693527222e-01 7.7444112300872803e-01</leafValues></_></weakClassifiers></_>
    <!-- stage 7 -->
    <_>
      <maxWeakCount>2</maxWeakCount>
      <stageThreshold>-5.4267448186874390e-01</stageThreshold>
      <weakClassifiers>
        <_>
          <internalNodes>
            0 -1 12 -3.9408188313245773e-02</internalNodes>
          <leafValues>
            2.7272728085517883e-01 -7.8640776872634888e-01</leafValues></_>
        <_>
          <internalNodes>
            0 -1 10 2.2664379503112286e-04</internalNodes>
          <leafValues>
            -8.1540173292160034e-01 3.4850496053695679e-01</leafValues></_></weakClassifiers></_>
    <!-- stage 8 -->
    <_>
      <maxWeakCount>2</maxWeakCount>
      <stageThreshold>-5.1523596048355103e-01</stageThreshold>
      <weakClassifiers>
        <_>
          <internalNodes>
            0 -1 32 7.5288675725460052e-03</internalNodes>
          <leafValues>
            -7.7777779102325439e-01 5.2941179275512695e-01</leafValues></_>
        <_>
          <internalNodes>
            0 -1 15 -1.9728526240214705e-04</internalNodes>
          <leafValues>
            2.6254183053970337e-01 -8.9596575498580933e-01</leafValues></_></weakClassifiers></_>
    <!-- stage 9 -->
    <_>
      <maxWeakCount>4</maxWeakCount>
      <stageThreshold>-5.4361236095428467e-01</stageThreshold>
      <weakClassifiers>
        <_>
          <internalNodes>
            0 -1 8 -5.3608573973178864e-02</internalNodes>
          <leafValues>
            1. -7.0940172672271729e-01</leafValues></_>
        <_>
          <internalNodes>
            0 -1 27 5.8840159326791763e-03</internalNodes>
          <leafValues>
            -7.5548434257507324e-01 6.8046671152114868e-01</leafValues></_>
        <_>
          <internalNodes>
            0 -1 1 -3.9183348417282104e-03</internalNodes>
          <leafValues>
            4.9960848689079285e-01 -7.9710274934768677e-01</leafValues></_>
        <_>
          <internalNodes>
            0 -1 11 -1.5474627912044525e-01</internalNodes>
          <leafValues>
            4.2166519165039063e-01 -8.0664300918579102e-01</leafValues></_></weakClassifiers></_>
    <!-- stage 10 -->
    <_>
      <maxWeakCount>3</maxWeakCount>
      <stageThreshold>-9.9134045839309692e-01</stageThreshold>
      <weakClassifiers>
        <_>
          <internalNodes>
            0 -1 7 -4.2733266949653625e-02</internalNodes>
          <leafValues>
            1. -7.0940172672271729e-01</leafValues></_>
        <_>
          <internalNodes>
            0 -1 6 -3.1592071056365967e-02</internalNodes>
          <leafValues>
            5.2538168430328369e-01 -7.3735219240188599e-01</leafValues></_>
        <_>
          <internalNodes>
            0 -1 23 2.4845814332365990e-02</internalNodes>
          <leafValues>
            -8.0833160877227783e-01 4.5541346073150635e-01</leafValues></_></weakClassifiers></_>
    <!-- stage 11 -->
    <_>
      <maxWeakCount>2</maxWeakCount>
      <stageThreshold>-4.5774775743484497e-01</stageThreshold>
      <weakClassifiers>
        <_>
          <internalNodes>
            0 -1 22 -1.7781460285186768e-01</internalNodes>
          <leafValues>
            5.0000000000000000e-01 -7.6146787405014038e-01</leafValues></_>
        <_>
          <internalNodes>
            0 -1 13 2.7407356537878513e-03</internalNodes>
          <leafValues>
            -8.0973029136657715e-01 3.0372011661529541e-01</leafValues></_></weakClassifiers></_>
    <!-- stage 12 -->
    <_>
      <maxWeakCount>2</maxWeakCount>
      <stageThreshold>-4.4049507379531860e-01</stageThreshold>
      <weakClassifiers>
        <_>
          <internalNodes>
            0 -1 9 -1.6514144837856293e-02</internalNodes>
          <leafValues>
            1. -7.2413790225982666e-01</leafValues></_>
        <_>
          <internalNodes>
            0 -1 30 -2.1057955920696259e-02</internalNodes>
          <leafValues>
            -1. 2.8364285826683044e-01</leafValues></_></weakClassifiers></_>
    <!-- stage 13 -->
    <_>
      <maxWeakCount>2</maxWeakCount>
      <stageThreshold>-3.8201531767845154e-01</stageThreshold>
      <weakClassifiers>
        <_>
          <internalNodes>
            0 -1 19 -2.0112716592848301e-03</internalNodes>
          <leafValues>
            5.5555558204650879e-01 -7.9439252614974976e-01</leafValues></_>
        <_>
          <internalNodes>
            0 -1 24 -1.8785582855343819e-02</internalNodes>
          <leafValues>
            -7.2449737787246704e-01 4.1237720847129822e-01</leafValues></_></weakClassifiers></_></stages>
  <features>
    <_>
      <rects>
        <_>
          0 4 6 10 -1.</_>
        <_>
          0 4 3 5 2.</_>
        <_>
          3 9 3 5 2.</_></rects>
      <tilted>0</tilted></_>
    <_>
      <rects>
        <_>
          0 4 14 2 -1.</_>
        <_>
          0 5 14 1 2.</_></rects>
      <tilted>0</tilted></_>
    <_>
      <rects>
        <_>
          0 7 8 13 -1.</_>
        <_>
          4 7 4 13 2.</_></rects>
      <tilted>0</tilted></_>
    <_>
      <rects>
        <_>
          0 9 6 1 -1.</_>
        <_>
          3 9 3 1 2.</_></rects>
      <tilted>0</tilted></_>
    <_>
      <rects>
        <_>
          0 10 10 11 -1.</_>
        <_>
          5 10 5 11 2.</_></rects>
      <tilted>0</tilted></_>
    <_>
      <rects>
        <_>
          0 16 8 8 -1.</_>
        <_>
          0 16 4 4 2.</_>
        <_>
          4 20 4 4 2.</_></rects>
      <tilted>0</tilted></_>
    <_>
      <rects>
        <_>
          2 1 8 6 -1.</_>
        <_>
          2 4 8 3 2.</_></rects>
      <tilted>0</tilted></_>
    <_>
      <rects>
        <_>
          2 2 10 8 -1.</_>
        <_>
          2 2 5 4 2.</_>
        <_>
          7 6 5 4 2.</_></rects>
      <tilted>0</tilted></_>
    <_>
      <rects>
        <_>
          2 6 20 4 -1.</_>
        <_>
          2 8 20 2 2.</_></rects>
      <tilted>0</tilted></_>
    <_>
      <rects>
        <_>
          2 16 6 2 -1.</_>
        <_>
          5 16 3 2 2.</_></rects>
      <tilted>0</tilted></_>
    <_>
      <rects>
        <_>
          2 20 2 4 -1.</_>
        <_>
          2 20 1 2 2.</_>
        <_>
          3 22 1 2 2.</_></rects>
      <tilted>0</tilted></_>
    <_>
      <rects>
        <_>
          3 5 5 18 -1.</_>
        <_>
          3 11 5 6 2.</_></rects>
      <tilted>0</tilted></_>
    <_>
      <rects>
        <_>
          3 10 10 12 -1.</_>
        <_>
          3 10 5 6 2.</_>
        <_>
          8 16 5 6 2.</_></rects>
      <tilted>0</tilted></_>
    <_>
      <rects>
        <_>
          4 16 1 8 -1.</_>
        <_>
          4 20 1 4 2.</_></rects>
      <tilted>0</tilted></_>
    <_>
      <rects>
        <_>
          5 3 19 4 -1.</_>
        <_>
          5 5 19 2 2.</_></rects>
      <tilted>0</tilted></_>
    <_>
      <rects>
        <_>
          5 10 2 4 -1.</_>
        <_>
          5 10 1 2 2.</_>
        <_>
          6 12 1 2 2.</_></rects>
      <tilted>0</tilted></_>
    <_>
      <rects>
        <_>
          5 10 15 3 -1.</_>
        <_>
          10 10 5 3 2.</_></rects>
      <tilted>0</tilted></_>
    <_>
      <rects>
        <_>
          6 5 1 2 -1.</_>
        <_>
          6 6 1 1 2.</_></rects>
      <tilted>0</tilted></_>
    <_>
      <rects>
        <_>
          9 14 1 2 -1.</_>
        <_>
          9 15 1 1 2.</_></rects>
      <tilted>0</tilted></_>
    <_>
      <rects>
        <_>
          9 16 2 6 -1.</_>
        <_>
          9 19 2 3 2.</_></rects>
      <tilted>0</tilted></_>
    <_>
      <rects>
        <_>
          10 4 1 2 -1.</_>
        <_>
          10 5 1 1 2.</_></rects>
      <tilted>0</tilted></_>
    <_>
      <rects>
        <_>
          11 2 10 6 -1.</_>
        <_>
          11 5 10 3 2.</_></rects>
      <tilted>0</tilted></_>
    <_>
      <rects>
        <_>
          12 1 10 12 -1.</_>
        <_>
          12 7 10 6 2.</_></rects>
      <tilted>0</tilted></_>
    <_>
      <rects>
        <_>
          12 14 12 5 -1.</_>
        <_>
          18 14 6 5 2.</_></rects>
      <tilted>0</tilted></_>
    <_>
      <rects>
        <_>
          13 14 6 3 -1.</_>
        <_>
          15 14 2 3 2.</_></rects>
      <tilted>0</tilted></_>
    <_>
      <rects>
        <_>
          13 17 3 3 -1.</_>
        <_>
          14 17 1 3 2.</_></rects>
      <tilted>0</tilted></_>
    <_>
      <rects>
        <_>
          14 15 10 5 -1.</_>
        <_>
          19 15 5 5 2.</_></rects>
      <tilted>0</tilted></_>
    <_>
      <rects>
        <_>
          18 1 4 6 -1.</_>
        <_>
          20 1 2 6 2.</_></rects>
      <tilted>0</tilted></_>
    <_>
      <rects>
        <_>
          18 13 3 3 -1.</_>
        <_>
          19 13 1 3 2.</_></rects>
      <tilted>0</tilted></_>
    <_>
      <rects>
        <_>
          18 19 4 4 -1.</_>
        <_>
          18 19 2 2 2.</_>
        <_>
          20 21 2 2 2.</_></rects>
      <tilted>0</tilted></_>
    <_>
      <rects>
        <_>
          19 13 4 3 -1.</_>
        <_>
          19 14 4 1 2.</_></rects>
      <tilted>0</tilted></_>
    <_>
      <rects>
        <_>
          20 6 4 4 -1.</_>
        <_>
          20 6 2 2 2.</_>
        <_>
          22 8 2 2 2.</_></rects>
      <tilted>0</tilted></_>
    <_>
      <rects>
        <_>
          21 7 2 10 -1.</_>
        <_>
          22 7 1 10 2.</_></rects>
      <tilted>0</tilted></_></features></cascade>
</opencv_storage>
